solver_type L2R_LR
nr_class 6
label 4 6 3 2 5 1
nr_feature 25
bias -1
w
0.000442064944150658 0.01189650521092634 -0.009870427758568097 -0.08044989029808232 7.448060073291521e-06 -0.01411358104261768 
-7.647887154969734e-05 -0.0001650815158010864 0.0001939625667745873 0.001592603563863672 2.328780477215216e-05 0.006802869754427036 
1.538731861870453e-06 7.948884828057882e-06 -6.66076185384967e-05 0.0003013919963921515 -3.085884519733111e-08 4.328284008287017e-05 
1.623686359940255e-06 9.260862338134786e-05 -0.0001037247627698571 5.629451639171661e-05 -3.322700613226335e-07 -0.0001433098066181189 
3.991036460271875e-06 0.0002527267868243625 -0.0003793104508628782 -0.001390546578705048 1.837223687086199e-06 -0.0002247304209658841 
1.157521654559444e-06 0.0003280351935362919 -0.0004093841372526575 -0.0009046784343615781 1.707784602656365e-06 -0.0002175280172628163 
1.652028690059802e-06 3.8039572841556e-05 -0.0002150291044483426 0.001056515205233645 1.643321621966761e-07 0.0003515897245524602 
-7.447362317478404e-08 2.426732568683605e-05 -1.165969682297052e-05 -3.992754444921177e-05 -2.313541796896998e-08 -2.419932839847789e-06 
-3.17646346077844e-05 -0.003822206781143824 0.0009925132053608271 0.01319152419017236 -4.168731573901306e-06 -0.003535164623026548 
-5.486466499877111e-05 -0.004223451529601338 0.001008591028592858 0.009715066389751996 -1.192524322428612e-06 -0.003140495736424005 
-1.093061553490959e-05 -0.001136224543330443 -0.0002188464524824472 -0.0004700388054115761 3.2299760443512e-06 -0.00338952704091175 
-3.63068097184775e-05 -0.002070025836152216 0.000869096179199536 0.002513797928738527 3.851598882894605e-06 -0.002089199315186034 
-0.002211051655221415 -0.001734612337798886 0.001835902928116637 0.002135997601195731 -0.0001308512002263334 0.001422905567976124 
-6.468531893775256e-06 0.0001735551137422733 7.040757838894212e-05 -0.0008110986611257681 -5.058047999724875e-07 -0.0001806866789762456 
-7.862212959661309e-06 0.0002452958447434783 4.735294714332699e-05 -0.0002223931964266639 -3.775281296377725e-07 -0.0001628042020971875 
-8.393155394962916e-05 -0.002072288884116067 -0.0006416488277021942 -0.01419175904956423 8.352454819636486e-06 -0.001979862561624139 
-7.435871186221398e-06 0.0005408822633685769 -0.00105019340326899 0.003811043761275826 7.120125287202131e-06 0.0008388217750327237 
-3.926087715068815e-06 2.889945627637863e-06 -2.887352946552388e-05 -3.900965264890859e-05 5.699711116905213e-07 3.323815940976516e-05 
-4.666948223637815e-07 -2.89796223635207e-05 -5.976569957077582e-05 7.319359265099897e-05 3.363761237236773e-07 -0.0002628185797604848 
-2.949805449540323e-05 -0.0006547985882072417 0.0008666126958503799 -0.005100606386116463 4.485460847468538e-06 -0.001457571939991241 
-1.269313181663486e-05 0.009041261463462364 -0.008648183064331115 0.01967357590105755 5.725453266695857e-06 0.0009707526460265113 
0.0009013167336495121 -2.306378606367692e-06 -0.0006668239560968523 -0.000409205046361609 -9.54300056774486e-05 -0.0007907361960918681 
-1.314161420784384e-05 -0.002887603431464209 0.001102497112271617 -0.006619614762740792 9.964766259463248e-06 -0.002497780008032092 
-1.526747744281881e-05 -0.002709456727814312 0.0008977899491406564 -0.007133688220458749 1.469351490682843e-05 -0.003252014112951407 
-4.612550115819039e-05 0.0001259206523422219 -1.55273023344105e-05 -2.542677425695379e-05 -7.732829286243736e-05 -6.275311750251683e-05 
